{"model_type": "Sequential", "descriptors": [{"layer": "Input2D", "height": 1, "width": 1, "channel": 2, "batch": 1}, {"layer": "Dense2D", "units": 16}, {"layer": "Bias2D", "units": 16}, {"layer": "ReLu"}, {"layer": "Dense2D", "units": 1}, {"layer": "Bias2D", "units": 1}, {"layer": "Sigmoid"}], "weights": [[[[[-0.476012259721756, -0.4648393392562866, 0.5335636734962463, 0.47269368171691895, 0.3697991967201233, 0.28635016083717346, 0.16776242852210999, -0.4908895790576935, -0.7528051137924194, 0.2751457691192627, 0.04846549034118652, 0.7186639308929443, -0.6790325045585632, -0.4016490578651428, 0.8007873892784119, 0.17068664729595184], [0.47589755058288574, 0.4651016891002655, 0.4436498284339905, -0.4727243185043335, 0.44118767976760864, 0.2863665223121643, -0.491937518119812, -0.4293210506439209, 0.7542896270751953, 0.27509015798568726, -0.28236493468284607, -0.7181854248046875, 0.6801714301109314, -0.02141338586807251, -0.8002166748046875, 0.4808768033981323]]]], [[[[1.8865692254621536e-05, 3.801018465310335e-05, -0.0002329456910956651, -0.00015078080468811095, -0.37008756399154663, -0.28636404871940613, -0.17718760669231415, 0.0, -0.0008050898904912174, -0.2746557295322418, -0.0664466992020607, -0.0003029142681043595, -0.0009437080007046461, 0.0, -0.00036169696249999106, -0.17103742063045502]]]], [[[[1.0676705837249756], [0.7527126669883728], [0.12561722099781036], [1.0850661993026733], [-0.8775525093078613], [-0.9629088640213013], [-0.08875450491905212], [-0.20234769582748413], [0.962929368019104], [-0.870802640914917], [-0.40408992767333984], [0.8984339833259583], [0.48051756620407104], [0.14830386638641357], [0.5195701718330383], [-0.26825451850891113]]]], [[[[-0.44296684861183167]]]]]}